/****** NN DATA ********/
const int NNil = 21;
const int NNol = 5;
const int NNl1l = 10;
float NNinput[21];
float NNoutput[5];
float x1_step1_xoffset[21] = {0.24513889,0.36988889,0.24513889,0.36988889,0.32544000,0.13775000,0.05250000,0.16895772,0.18914090,0.39654929,0.37057754,0.37057754,0.37057754,0.37057754,0.37057754,0.00566000,0.01666667,-0.21666667,-0.26666667,0.26666667,0.16111111};
float x1_step1_gain[21] = {3.99866711,8.20512821,3.99866711,8.20512821,4.53885258,5.44217687,4.32900433,2.69087165,3.19496023,14.27996661,7.74179668,7.74179668,7.74179668,7.74179668,7.74179668,3.92788405,3.00000000,1.21212121,1.21212121,2.92682927,4.00000000};
float x1_step1_ymin = -1;
float b1[10] = {-1.08216987,-0.37631447,0.04009857,-0.18656134,0.28925992,0.04881242,-0.02685643,-0.66798722,-1.18542277,1.60847709};
float IW1_1[10][21] = {{0.37049314,-0.20188914,0.03677115,0.52355343,-0.13988715,-0.02445468,-0.15517388,0.63926281,0.70784775,-0.16423660,0.57391722,0.01909325,0.29489627,0.05851348,0.03778914,-0.06962558,-0.19067376,0.00895047,0.17094641,0.14703545,0.07333258},{0.05347729,0.54522450,-0.00867278,-0.45951317,-0.04658792,-0.04755653,-0.03366426,0.30788669,0.37069907,0.06371703,0.36254691,0.00668641,0.35540499,0.06953127,0.03642439,-0.06127632,-0.82515236,0.18039157,0.25390369,0.04464650,0.03095840},{0.01622138,0.04653544,0.00366848,-0.05050977,-0.02815992,0.00315068,0.00878384,0.04975142,0.00659271,-0.00769102,-0.02006382,0.00288633,-0.07091381,-0.00909224,0.01540916,0.00484768,-0.09959689,-0.08985739,-0.01968815,-0.03532957,-0.50972175},{0.13355321,-0.05189910,-0.02816870,0.04740053,0.44611921,0.23871790,-0.21540580,-0.32508487,0.32027865,-0.30228149,0.02352728,0.01184815,-0.03935044,-0.21613663,-0.24458623,-0.38225460,0.35601476,0.52839923,0.17858566,0.42622966,-0.22274280},{-0.40651870,0.14635882,0.42848774,-0.11137560,-0.08510291,-0.03887980,-0.00396114,0.17606924,0.08046658,0.06410437,0.03730439,-0.02337879,-0.04194689,0.06464043,0.10105031,0.02051638,0.75618976,0.27893585,0.68277684,0.55916779,-0.09487878},{-0.61704498,-0.13548098,0.63563230,0.13906238,-0.04994224,-0.00719405,0.02579154,0.04556601,-0.00449743,-0.02458235,-0.01432079,0.00123958,-0.06159385,0.00654542,0.01168458,0.01996970,0.42480533,-0.32205665,-0.08259761,-0.44506111,-0.02265304},{0.85917292,0.02187187,-0.90739623,-0.04051583,0.02515246,-0.01165518,-0.00589213,-0.01629056,0.04295971,0.07086339,0.08914846,0.00544045,0.19229807,0.00184034,-0.01698311,-0.01525019,-0.02236249,0.38182095,-0.22032944,-0.08450932,-0.15803629},{-0.82316733,-0.72954040,0.36131916,0.67722034,0.03733430,-0.06456346,0.02908714,-0.32080093,-0.38201548,0.23253845,-0.00142707,0.00172286,0.26509120,-0.11673182,-0.11785605,0.15634583,0.19478450,-0.10920314,-0.15958960,-0.00815011,-0.07615376},{-0.22998880,0.25274211,0.48448789,-0.27483607,0.01948685,0.00227563,0.07954171,0.25449140,0.06747092,-0.14921186,0.09870696,0.27381244,0.18867552,0.00549724,-0.19156196,0.03280571,0.97774467,0.04807508,0.11851971,0.45121383,-0.22389982},{0.34980642,-0.09465684,-0.11166449,0.36005684,0.46496641,0.00087420,-0.29845008,-0.62563873,-0.05264786,-0.32009989,-0.11465802,-0.18868743,0.26172212,0.36992843,0.02463433,-0.12591462,0.02898673,0.51626115,0.22759340,0.70079506,-0.14606570}};
float b2[5] = {-0.06504547,-0.97979723,0.98227165,0.06870610,0.27511332};
float LW2_1[5][10] = {{0.04118503,-0.27522546,-0.37762400,0.11010993,0.53323508,0.75186735,0.49590945,0.06794546,0.22063280,0.08835971},{0.40681378,-1.05777531,-0.19027696,-0.25901075,-0.26082608,-0.71584007,1.39980774,-0.78802221,-0.15175524,0.49715621},{-0.40962446,1.06069108,0.18893346,0.25964866,0.26034581,0.71662829,-1.40245400,0.78926686,0.15464327,-0.49551587},{0.15816089,-0.24673381,0.03028274,0.01184741,0.41048924,-1.44675564,-0.32716710,0.08804638,0.30620890,0.19176641},{0.06799797,-0.12868106,-1.83427064,-0.07336511,-0.09697456,-0.13495039,-0.26092275,-0.25686013,-0.13023262,-0.47191998}};
float y1_step1_ymin = -1;
float y1_step1_gain[5] = {3.00000000,1.21212121,1.21212121,2.92682927,4.00000000};
float y1_step1_xoffset[5] = {0.01666667,-0.21666667,-0.26666667,0.26666667,0.16111111};
/****** END OF NN DATA ******/